<?xml version="1.0"?>
<opencv_storage>
<stage4>
  <maxWeakCount>9</maxWeakCount>
  <stageThreshold>-1.4036515951156616e+00</stageThreshold>
  <weakClassifiers>
    <_>
      <internalNodes>
        0 -1 772 -251660545 -218630319 -301991425 -100925487 15663279
        708777760 -301998081 -1</internalNodes>
      <leafValues>
        -7.2899883985519409e-01 3.3203125000000000e-02</leafValues></_>
    <_>
      <internalNodes>
        0 -1 7784 -6145 -50344993 -266632646 -218106882 1743733311
        2079310207 1642820724 -169869377</internalNodes>
      <leafValues>
        -5.4545253515243530e-01 2.9103776812553406e-01</leafValues></_>
    <_>
      <internalNodes>
        0 -1 8442 -1154746445 -1222050512 973041009 -134176 -1610629121
        -285425667 -1623624207 -541067279</internalNodes>
      <leafValues>
        -3.9434900879859924e-01 4.6892702579498291e-01</leafValues></_>
    <_>
      <internalNodes>
        0 -1 4674 803013724 -575351 -544325763 -138462452 -1291972616
        -2449234 -302367842 -335672680</internalNodes>
      <leafValues>
        -4.9503621459007263e-01 3.5752311348915100e-01</leafValues></_>
    <_>
      <internalNodes>
        0 -1 4081 1968491244 1475735230 -209196626 -8672018 -183767123
        902671276 -4473877 939371146</internalNodes>
      <leafValues>
        -5.9562772512435913e-01 3.1172817945480347e-01</leafValues></_>
    <_>
      <internalNodes>
        0 -1 3723 249432840 -149265600 659433554 -36507708 2136689439
        -17377 -537956754 -278705</internalNodes>
      <leafValues>
        -5.7755267620086670e-01 2.6074352860450745e-01</leafValues></_>
    <_>
      <internalNodes>
        0 -1 6496 2130851607 688537499 -74256417 -5251073 176320507
        -1367618049 679527926 -1392713733</internalNodes>
      <leafValues>
        -4.7584924101829529e-01 3.4481269121170044e-01</leafValues></_>
    <_>
      <internalNodes>
        0 -1 2395 -17380106 -605297121 -17414531 -267714 -598337
        -604015361 -92846213 -8946574</internalNodes>
      <leafValues>
        -3.6034473776817322e-01 4.4280824065208435e-01</leafValues></_>
    <_>
      <internalNodes>
        0 -1 7747 1609613198 1773580691 -246703683 -68172293 1078032235
        -1444355589 1085889386 1577010175</internalNodes>
      <leafValues>
        -5.2204638719558716e-01 3.1830775737762451e-01</leafValues></_></weakClassifiers></stage4>
</opencv_storage>
