<?xml version="1.0"?>
<opencv_storage>
<stage2>
  <maxWeakCount>8</maxWeakCount>
  <stageThreshold>-1.5420711040496826e+00</stageThreshold>
  <weakClassifiers>
    <_>
      <internalNodes>
        0 -1 7563 -1 -67174401 -108136449 -67436577 1442802687 -67110501
        1375686911 -134219777</internalNodes>
      <leafValues>
        -7.4088954925537109e-01 1.9461581110954285e-01</leafValues></_>
    <_>
      <internalNodes>
        0 -1 51 -922890753 -34472037 -136843301 -68092047 205458623
        -268890201 -371494913 -32781</internalNodes>
      <leafValues>
        -4.5939266681671143e-01 4.4360604882240295e-01</leafValues></_>
    <_>
      <internalNodes>
        0 -1 4216 239013599 -2115105 -254117921 -1359856898 83380445
        -1073825121 -320930817 -50671618</internalNodes>
      <leafValues>
        -4.9205616116523743e-01 3.8516116142272949e-01</leafValues></_>
    <_>
      <internalNodes>
        0 -1 1077 -425276689 -201347377 -1133857119 -8426921 -378304769
        -536901889 -25720961 -589245</internalNodes>
      <leafValues>
        -3.8323491811752319e-01 4.7815844416618347e-01</leafValues></_>
    <_>
      <internalNodes>
        0 -1 5952 -118505402 1191111679 -1067648306 -520093697 -4259516
        1454243151 -134226354 -436207889</internalNodes>
      <leafValues>
        -4.9800634384155273e-01 3.6762049794197083e-01</leafValues></_>
    <_>
      <internalNodes>
        0 -1 8278 -1348468941 -1884621475 -278931009 -6889495 1240691701
        -1076113745 -540285484 -318833680</internalNodes>
      <leafValues>
        -4.8797380924224854e-01 3.8509091734886169e-01</leafValues></_>
    <_>
      <internalNodes>
        0 -1 5561 -14418245 1895870219 -1256728773 2064742929 1567454623
        256859567 -68796881 2134080315</internalNodes>
      <leafValues>
        -4.3801233172416687e-01 4.1406273841857910e-01</leafValues></_>
    <_>
      <internalNodes>
        0 -1 8254 69737816 1027090910 -573046819 536771056 783418876
        1000371416 716833759 805259516</internalNodes>
      <leafValues>
        -6.2160062789916992e-01 2.9575008153915405e-01</leafValues></_></weakClassifiers></stage2>
</opencv_storage>
