<?xml version="1.0"?>
<opencv_storage>
<stage10>
  <maxWeakCount>12</maxWeakCount>
  <stageThreshold>-1.8652155399322510e+00</stageThreshold>
  <weakClassifiers>
    <_>
      <internalNodes>
        0 -1 7945 -508559426 2059581430 -1207934357 -81962450 1493952510
        437161679 1164642255 1439106799</internalNodes>
      <leafValues>
        -7.7720922231674194e-01 -2.6818066835403442e-01</leafValues></_>
    <_>
      <internalNodes>
        0 -1 6012 -203423941 324246035 -217456361 1363399675 2043411311
        590061922 -92030144 1979182079</internalNodes>
      <leafValues>
        -4.8127484321594238e-01 2.1500825881958008e-01</leafValues></_>
    <_>
      <internalNodes>
        0 -1 8240 -1105512143 -1080322575 -1153183403 -1346318251
        -1094065675 -68053622 -1685323811 -352529483</internalNodes>
      <leafValues>
        -4.0586254000663757e-01 2.9039704799652100e-01</leafValues></_>
    <_>
      <internalNodes>
        0 -1 7966 -814925808 -544276469 -1982514862 -1377886136
        -1342229553 -1010091993 -442516625 -1476713814</internalNodes>
      <leafValues>
        -4.2493456602096558e-01 2.6484820246696472e-01</leafValues></_>
    <_>
      <internalNodes>
        0 -1 95 -220217102 -1653416976 -297279139 -1109428400 11468966
        36113937 1168099503 -809806245</internalNodes>
      <leafValues>
        -3.6478105187416077e-01 3.3424624800682068e-01</leafValues></_>
    <_>
      <internalNodes>
        0 -1 6420 -86257826 -179100713 1075402744 1128452447 1909611332
        1696727117 -70394020 -143461518</internalNodes>
      <leafValues>
        -3.8451582193374634e-01 3.0033081769943237e-01</leafValues></_>
    <_>
      <internalNodes>
        0 -1 1533 1163700907 1493142783 -3566389 -2032144137 399093567
        -1476792534 -584327309 1945072255</internalNodes>
      <leafValues>
        -4.0918081998825073e-01 2.7422198653221130e-01</leafValues></_>
    <_>
      <internalNodes>
        0 -1 3016 -27357476 -27267843 1293732479 -109923213 -39826690
        2108377275 -216369702 1604275151</internalNodes>
      <leafValues>
        -3.8818973302841187e-01 2.7510628104209900e-01</leafValues></_>
    <_>
      <internalNodes>
        0 -1 7718 -8392914 2007625639 -1560317404 -524310 2147479399
        1182793715 -134219778 -780664833</internalNodes>
      <leafValues>
        -2.7123844623565674e-01 4.1471263766288757e-01</leafValues></_>
    <_>
      <internalNodes>
        0 -1 7627 -1481951206 772720640 -1048325510 -294325494 59084157
        595976635 147413941 -324862616</internalNodes>
      <leafValues>
        -5.3790706396102905e-01 1.9774983823299408e-01</leafValues></_>
    <_>
      <internalNodes>
        0 -1 7513 -1019019784 2114081208 -472544300 -315879204
        1594960849 -1815092269 1776647649 1558148090</internalNodes>
      <leafValues>
        -4.7332236170768738e-01 2.2398231923580170e-01</leafValues></_>
    <_>
      <internalNodes>
        0 -1 7378 987456631 571673435 -748757265 781050803 1288052982
        1752106079 -1395244681 -323499653</internalNodes>
      <leafValues>
        -4.2807739973068237e-01 2.5961729884147644e-01</leafValues></_></weakClassifiers></stage10>
</opencv_storage>
