<?xml version="1.0"?>
<opencv_storage>
<stage3>
  <maxWeakCount>9</maxWeakCount>
  <stageThreshold>-1.5558520555496216e+00</stageThreshold>
  <weakClassifiers>
    <_>
      <internalNodes>
        0 -1 7552 -1 -2427433 1867743231 -134220801 1442778623 -38913
        1174357503 -536879105</internalNodes>
      <leafValues>
        -7.3329603672027588e-01 1.3326109945774078e-01</leafValues></_>
    <_>
      <internalNodes>
        0 -1 5076 -143656459 859823035 -1594359873 287567679 -168299019
        -572550147 -277635597 825490383</internalNodes>
      <leafValues>
        -5.9225356578826904e-01 2.7920725941658020e-01</leafValues></_>
    <_>
      <internalNodes>
        0 -1 2399 -290787346 -552937473 -37316129 -1490289073 -272634389
        -607125761 -121287411 1931966223</internalNodes>
      <leafValues>
        -5.0965279340744019e-01 3.2701981067657471e-01</leafValues></_>
    <_>
      <internalNodes>
        0 -1 2796 185446350 -572555265 1599018527 1071404925 257788895
        1599463351 -2098209 1911946109</internalNodes>
      <leafValues>
        -5.5799096822738647e-01 3.1045052409172058e-01</leafValues></_>
    <_>
      <internalNodes>
        0 -1 1966 711937807 541781675 -50381505 676766559 1853363791
        -2124506241 -70861825 -394264961</internalNodes>
      <leafValues>
        -5.2926373481750488e-01 3.0852714180946350e-01</leafValues></_>
    <_>
      <internalNodes>
        0 -1 7756 -286851082 -160367553 2103147221 -134223941 1154842609
        -155063598 1396528885 1442665941</internalNodes>
      <leafValues>
        -5.2105569839477539e-01 3.0606952309608459e-01</leafValues></_>
    <_>
      <internalNodes>
        0 -1 5609 1901131517 2130244487 72614485 928766463 -6062089
        441213476 1434468147 518895615</internalNodes>
      <leafValues>
        -4.8939016461372375e-01 3.1195080280303955e-01</leafValues></_>
    <_>
      <internalNodes>
        0 -1 5234 1996449403 242410207 -597632035 -299993634 -105220008
        -1086516997 -254124036 -5181452</internalNodes>
      <leafValues>
        -5.0873655080795288e-01 3.0990651249885559e-01</leafValues></_>
    <_>
      <internalNodes>
        0 -1 3532 -371740985 2077086197 -644817545 -168438786 1138989991
        2090975500 1469970877 -3097228</internalNodes>
      <leafValues>
        -4.0313088893890381e-01 3.9434257149696350e-01</leafValues></_></weakClassifiers></stage3>
</opencv_storage>
