<?xml version="1.0"?>
<opencv_storage>
<stage7>
  <maxWeakCount>10</maxWeakCount>
  <stageThreshold>-1.9790138006210327e+00</stageThreshold>
  <weakClassifiers>
    <_>
      <internalNodes>
        0 -1 35 -100672265 -134553904 -157290761 -263181 210699503
        34428705 1285376239 -8449</internalNodes>
      <leafValues>
        -7.1796768903732300e-01 -6.8030238151550293e-02</leafValues></_>
    <_>
      <internalNodes>
        0 -1 4678 2139085431 423045980 366855933 1059046775 -2017468424
        2059176375 -1909784604 566221791</internalNodes>
      <leafValues>
        -5.7292306423187256e-01 1.8618871271610260e-01</leafValues></_>
    <_>
      <internalNodes>
        0 -1 8258 1068119860 -1088957580 -1718021641 -65412 707456686
        -1081464158 448576254 -1347543620</internalNodes>
      <leafValues>
        -4.5621633529663086e-01 2.9314595460891724e-01</leafValues></_>
    <_>
      <internalNodes>
        0 -1 5902 234827183 1071633343 1562221563 -10487558 2073786367
        1551861963 -3489893 -239813658</internalNodes>
      <leafValues>
        -3.9440989494323730e-01 3.2191735506057739e-01</leafValues></_>
    <_>
      <internalNodes>
        0 -1 4769 182406519 773591315 -1626155457 239383262 1245330553
        -107041621 -74657928 -21693644</internalNodes>
      <leafValues>
        -5.6547117233276367e-01 2.4279007315635681e-01</leafValues></_>
    <_>
      <internalNodes>
        0 -1 7239 -540086369 584189631 264231835 719275643 -602452387
        -1664650311 17715039 208886751</internalNodes>
      <leafValues>
        -4.6281990408897400e-01 2.8010401129722595e-01</leafValues></_>
    <_>
      <internalNodes>
        0 -1 5529 1451163685 706402550 -1073485665 716165823 -134017013
        -558137334 -800807061 -97715666</internalNodes>
      <leafValues>
        -5.1755660772323608e-01 2.4467852711677551e-01</leafValues></_>
    <_>
      <internalNodes>
        0 -1 8184 -1210597901 -2037589859 -745343723 -143732016
        1397446999 -816676726 -1968836108 -822308044</internalNodes>
      <leafValues>
        -4.6420991420745850e-01 2.6018610596656799e-01</leafValues></_>
    <_>
      <internalNodes>
        0 -1 8420 -711650279 -685918171 -1291648001 -1693461668
        -112885265 -1202945975 -1125216562 -1599543121</internalNodes>
      <leafValues>
        -3.6892026662826538e-01 3.4628710150718689e-01</leafValues></_>
    <_>
      <internalNodes>
        0 -1 1114 2021887 -1347007729 102501302 36334579 918835317
        -561287165 331747823 1005789007</internalNodes>
      <leafValues>
        -5.2934461832046509e-01 2.5946149230003357e-01</leafValues></_></weakClassifiers></stage7>
</opencv_storage>
