<?xml version="1.0"?>
<opencv_storage>
<stage5>
  <maxWeakCount>9</maxWeakCount>
  <stageThreshold>-1.4736225605010986e+00</stageThreshold>
  <weakClassifiers>
    <_>
      <internalNodes>
        0 -1 4659 -526337 521533445 -1823885443 -1252133027 -240141313
        -338699337 -206983732 -8395285</internalNodes>
      <leafValues>
        -7.3001039028167725e-01 -3.4971226006746292e-02</leafValues></_>
    <_>
      <internalNodes>
        0 -1 2110 584794613 729076816 -94896713 -1289734896 95357243
        -1431849925 -272891905 -72090765</internalNodes>
      <leafValues>
        -5.2808105945587158e-01 2.6049414277076721e-01</leafValues></_>
    <_>
      <internalNodes>
        0 -1 8354 1057439507 1059254577 -653849611 -144884912 -610288646
        -1156673141 948899541 -1912881996</internalNodes>
      <leafValues>
        -5.0416290760040283e-01 3.2588779926300049e-01</leafValues></_>
    <_>
      <internalNodes>
        0 -1 4779 -287371649 -78113937 1751094527 1912614042 -104048559
        -67558575 -594917316 -300888736</internalNodes>
      <leafValues>
        -5.4372668266296387e-01 2.9881888628005981e-01</leafValues></_>
    <_>
      <internalNodes>
        0 -1 7575 -68685985 685197023 -315243297 716371662 1164903711
        136268099 1110405023 1207634811</internalNodes>
      <leafValues>
        -5.1673895120620728e-01 3.2640293240547180e-01</leafValues></_>
    <_>
      <internalNodes>
        0 -1 1038 -419502337 -135528709 -1342453137 -25544190 678682619
        -151001858 -1888244741 -75561865</internalNodes>
      <leafValues>
        -3.3729001879692078e-01 4.6496397256851196e-01</leafValues></_>
    <_>
      <internalNodes>
        0 -1 6380 -270555333 711131085 -1019097982 582125570 1619785963
        1811622318 -150211841 -218893338</internalNodes>
      <leafValues>
        -4.6018111705780029e-01 3.4067249298095703e-01</leafValues></_>
    <_>
      <internalNodes>
        0 -1 8346 -1272906384 470913168 -1021388867 -1218603275
        -888486996 -1165234007 -1181994567 -1080078691</internalNodes>
      <leafValues>
        -4.1939523816108704e-01 4.0216922760009766e-01</leafValues></_>
    <_>
      <internalNodes>
        0 -1 4187 1895346384 1358949855 4206885 857690815 -91514183
        1158325000 -740611169 173999550</internalNodes>
      <leafValues>
        -5.8235692977905273e-01 2.4933552742004395e-01</leafValues></_></weakClassifiers></stage5>
</opencv_storage>
