<?xml version="1.0"?>
<opencv_storage>
<stage6>
  <maxWeakCount>10</maxWeakCount>
  <stageThreshold>-1.9214949607849121e+00</stageThreshold>
  <weakClassifiers>
    <_>
      <internalNodes>
        0 -1 453 -590026833 -570907441 -5001329 -2160902 -258674757
        -691921945 -23090401 -61537</internalNodes>
      <leafValues>
        -7.2358447313308716e-01 -5.7683840394020081e-02</leafValues></_>
    <_>
      <internalNodes>
        0 -1 6000 -10689 591394603 -2112699502 547553235 -1177841078
        889807115 -11296300 1998061511</internalNodes>
      <leafValues>
        -6.4097440242767334e-01 1.5868055820465088e-01</leafValues></_>
    <_>
      <internalNodes>
        0 -1 8332 -1179173611 -69775237 -565586947 -1512402532
        -543515179 -105385777 -1159923203 -857935364</internalNodes>
      <leafValues>
        -4.5700871944427490e-01 3.1889548897743225e-01</leafValues></_>
    <_>
      <internalNodes>
        0 -1 52 1290716665 -55066633 -1426194635 -1745535119 147656501
        -1107853315 -1914839073 -41129</internalNodes>
      <leafValues>
        -3.8507533073425293e-01 3.9888215065002441e-01</leafValues></_>
    <_>
      <internalNodes>
        0 -1 5655 1492713439 324113774 84813823 880269583 1978630141
        2091226972 1136947387 1885665023</internalNodes>
      <leafValues>
        -4.2250427603721619e-01 3.6934521794319153e-01</leafValues></_>
    <_>
      <internalNodes>
        0 -1 1179 -60931330 -18945298 1717855450 -495785105 -204914509
        -374181897 1995649743 -14156353</internalNodes>
      <leafValues>
        -4.2543423175811768e-01 3.4662330150604248e-01</leafValues></_>
    <_>
      <internalNodes>
        0 -1 7979 20392208 1600049627 532814384 259334800 -675299609
        -624954708 -305137163 -269752972</internalNodes>
      <leafValues>
        -5.1229208707809448e-01 2.8539055585861206e-01</leafValues></_>
    <_>
      <internalNodes>
        0 -1 8279 64634641 -1971127418 -746460203 -474083021 -913698371
        -1578399349 -1013983183 -858197776</internalNodes>
      <leafValues>
        -5.5167245864868164e-01 2.3202973604202271e-01</leafValues></_>
    <_>
      <internalNodes>
        0 -1 3588 1062582478 2010303956 -1824931910 -105803663 402190222
        1474824428 -1064651350 -1291863557</internalNodes>
      <leafValues>
        -5.2385145425796509e-01 2.4509990215301514e-01</leafValues></_>
    <_>
      <internalNodes>
        0 -1 8438 1067028640 -1970782080 33686616 1498390679 -1458325087
        -1702346624 721515173 -282854695</internalNodes>
      <leafValues>
        -4.3826165795326233e-01 3.0332392454147339e-01</leafValues></_></weakClassifiers></stage6>
</opencv_storage>
