<?xml version="1.0"?>
<opencv_storage>
<stage11>
  <maxWeakCount>12</maxWeakCount>
  <stageThreshold>-1.5176868438720703e+00</stageThreshold>
  <weakClassifiers>
    <_>
      <internalNodes>
        0 -1 7953 -5244929 1976275103 -1862233320 -228838737 31206319
        193495179 1082754031 1174404079</internalNodes>
      <leafValues>
        -7.6262360811233521e-01 -1.8690145015716553e-01</leafValues></_>
    <_>
      <internalNodes>
        0 -1 5169 -1359008752 -2371373 -868076259 -549207731 -24404268
        -511496055 -930926688 -1411470272</internalNodes>
      <leafValues>
        -5.2949935197830200e-01 1.6953836381435394e-01</leafValues></_>
    <_>
      <internalNodes>
        0 -1 19 -16058408 -1214016086 -2000132012 -324419187 486556805
        -1239326971 147587272 -437566234</internalNodes>
      <leafValues>
        -4.0287438035011292e-01 2.9946848750114441e-01</leafValues></_>
    <_>
      <internalNodes>
        0 -1 8425 2039675952 -101974224 -33555 -538182036 -869562897
        771108734 -1095107089 -1398036818</internalNodes>
      <leafValues>
        -3.2191312313079834e-01 3.6525413393974304e-01</leafValues></_>
    <_>
      <internalNodes>
        0 -1 3761 -140515521 408895953 -15606562 -1295984334 1227495775
        -901251069 -1090391298 -8987034</internalNodes>
      <leafValues>
        -3.3009985089302063e-01 3.6996570229530334e-01</leafValues></_>
    <_>
      <internalNodes>
        0 -1 5945 -226045198 -529823138 1916901984 -60964773 654807202
        1867448836 663704407 1672297018</internalNodes>
      <leafValues>
        -5.0645083189010620e-01 2.5105056166648865e-01</leafValues></_>
    <_>
      <internalNodes>
        0 -1 4172 -99135280 408032706 -2130705969 462860362 -120990312
        294781632 2047404250 962316379</internalNodes>
      <leafValues>
        -4.5147761702537537e-01 2.5613927841186523e-01</leafValues></_>
    <_>
      <internalNodes>
        0 -1 6605 46474891 647691650 -947699425 -350818146 2051230524
        1628079040 864500172 -906719612</internalNodes>
      <leafValues>
        -5.2389723062515259e-01 2.2528751194477081e-01</leafValues></_>
    <_>
      <internalNodes>
        0 -1 8258 640595232 -569163688 -209694211 -1650783867
        -1172169806 -1312160640 -1015008340 -1477821908</internalNodes>
      <leafValues>
        -4.3962663412094116e-01 2.6201328635215759e-01</leafValues></_>
    <_>
      <internalNodes>
        0 -1 247 1078970083 1989640920 -2074678709 -489271195
        -2137032094 -1571088285 1854098154 -252446240</internalNodes>
      <leafValues>
        -3.7787336111068726e-01 3.2538747787475586e-01</leafValues></_>
    <_>
      <internalNodes>
        0 -1 3900 -683330738 1531040195 256512954 -1914862085 -536299301
        442048680 839476885 1439484539</internalNodes>
      <leafValues>
        -5.2434283494949341e-01 2.0932851731777191e-01</leafValues></_>
    <_>
      <internalNodes>
        0 -1 5234 639062751 -1877639081 285323509 -1165868841 1894791744
        -1155432318 -1719601118 -548883696</internalNodes>
      <leafValues>
        -4.7819620370864868e-01 2.3914219439029694e-01</leafValues></_></weakClassifiers></stage11>
</opencv_storage>
