<?xml version="1.0"?>
<opencv_storage>
<stage13>
  <maxWeakCount>13</maxWeakCount>
  <stageThreshold>-1.4216215610504150e+00</stageThreshold>
  <weakClassifiers>
    <_>
      <internalNodes>
        0 -1 48234 3.2261379063129425e-02</internalNodes>
      <leafValues>
        -6.1395347118377686e-01 6.9999998807907104e-01</leafValues></_>
    <_>
      <internalNodes>
        0 -1 40860 -1.5576751902699471e-03</internalNodes>
      <leafValues>
        3.6510792374610901e-01 -3.1188938021659851e-01</leafValues></_>
    <_>
      <internalNodes>
        0 -1 47598 2.8015468269586563e-03</internalNodes>
      <leafValues>
        -1.1134206503629684e-01 7.7183949947357178e-01</leafValues></_>
    <_>
      <internalNodes>
        0 -1 58487 3.7745577283203602e-03</internalNodes>
      <leafValues>
        -1.9781196117401123e-01 5.2937012910842896e-01</leafValues></_>
    <_>
      <internalNodes>
        0 -1 4472 8.9754103100858629e-05</internalNodes>
      <leafValues>
        -3.0705660581588745e-01 2.8183430433273315e-01</leafValues></_>
    <_>
      <internalNodes>
        0 -1 64534 -4.7581107355654240e-04</internalNodes>
      <leafValues>
        4.4783547520637512e-01 -1.8980157375335693e-01</leafValues></_>
    <_>
      <internalNodes>
        0 -1 26522 -2.1959457546472549e-02</internalNodes>
      <leafValues>
        -6.9589424133300781e-01 1.5682134032249451e-01</leafValues></_>
    <_>
      <internalNodes>
        0 -1 2594 1.1608447879552841e-02</internalNodes>
      <leafValues>
        1.6015496850013733e-01 -7.4501657485961914e-01</leafValues></_>
    <_>
      <internalNodes>
        0 -1 24018 -3.0211599078029394e-03</internalNodes>
      <leafValues>
        5.4126089811325073e-01 -2.4152959883213043e-01</leafValues></_>
    <_>
      <internalNodes>
        0 -1 43073 1.4372169971466064e-02</internalNodes>
      <leafValues>
        2.4581891298294067e-01 -4.9352779984474182e-01</leafValues></_>
    <_>
      <internalNodes>
        0 -1 56456 1.8511057132855058e-03</internalNodes>
      <leafValues>
        1.7308501899242401e-01 -6.4301300048828125e-01</leafValues></_>
    <_>
      <internalNodes>
        0 -1 44942 -5.5114855058491230e-04</internalNodes>
      <leafValues>
        5.6932032108306885e-01 -2.3588787019252777e-01</leafValues></_>
    <_>
      <internalNodes>
        0 -1 52858 1.0232383012771606e-01</internalNodes>
      <leafValues>
        1.7229273915290833e-01 -6.7541134357452393e-01</leafValues></_></weakClassifiers></stage13>
</opencv_storage>
