<?xml version="1.0"?>
<opencv_storage>
<stage4>
  <maxWeakCount>9</maxWeakCount>
  <stageThreshold>-1.3525689840316772e+00</stageThreshold>
  <weakClassifiers>
    <_>
      <internalNodes>
        0 -1 69849 -1.9911184906959534e-02</internalNodes>
      <leafValues>
        6.8115943670272827e-01 -7.1625864505767822e-01</leafValues></_>
    <_>
      <internalNodes>
        0 -1 47924 2.0093081984668970e-03</internalNodes>
      <leafValues>
        -3.6386579275131226e-01 7.2316491603851318e-01</leafValues></_>
    <_>
      <internalNodes>
        0 -1 15031 1.2854987755417824e-02</internalNodes>
      <leafValues>
        -2.5800853967666626e-01 7.4635899066925049e-01</leafValues></_>
    <_>
      <internalNodes>
        0 -1 70296 -1.7714544665068388e-03</internalNodes>
      <leafValues>
        7.0980662107467651e-01 -1.8966414034366608e-01</leafValues></_>
    <_>
      <internalNodes>
        0 -1 26313 -1.6151066869497299e-02</internalNodes>
      <leafValues>
        -7.2350353002548218e-01 2.3677089810371399e-01</leafValues></_>
    <_>
      <internalNodes>
        0 -1 39372 -9.0396532323211432e-04</internalNodes>
      <leafValues>
        2.7759042382240295e-01 -5.2599471807479858e-01</leafValues></_>
    <_>
      <internalNodes>
        0 -1 67452 1.5823723515495658e-03</internalNodes>
      <leafValues>
        -2.2941832244396210e-01 6.5578430891036987e-01</leafValues></_>
    <_>
      <internalNodes>
        0 -1 41496 9.2922188341617584e-03</internalNodes>
      <leafValues>
        2.4893450736999512e-01 -7.2298282384872437e-01</leafValues></_>
    <_>
      <internalNodes>
        0 -1 43229 -1.2958755251020193e-03</internalNodes>
      <leafValues>
        6.3503617048263550e-01 -2.8620287775993347e-01</leafValues></_></weakClassifiers></stage4>
</opencv_storage>
