<?xml version="1.0"?>
<opencv_storage>
<stage8>
  <maxWeakCount>20</maxWeakCount>
  <stageThreshold>-1.7418398857116699e+00</stageThreshold>
  <weakClassifiers>
    <_>
      <internalNodes>
        0 -1 150837 -5.5191107094287872e-03</internalNodes>
      <leafValues>
        3.1988874077796936e-02 -7.0614343881607056e-01</leafValues></_>
    <_>
      <internalNodes>
        0 -1 95911 -4.1824914515018463e-02</internalNodes>
      <leafValues>
        -7.0598155260086060e-01 4.3186973780393600e-03</leafValues></_>
    <_>
      <internalNodes>
        0 -1 143074 -3.7982622161507607e-03</internalNodes>
      <leafValues>
        2.6597598195075989e-01 -2.9024809598922729e-01</leafValues></_>
    <_>
      <internalNodes>
        0 -1 35409 -7.3597161099314690e-04</internalNodes>
      <leafValues>
        -7.8973370790481567e-01 1.3752187788486481e-01</leafValues></_>
    <_>
      <internalNodes>
        0 -1 112492 1.2772383634001017e-03</internalNodes>
      <leafValues>
        -1.8736796081066132e-01 4.6409884095191956e-01</leafValues></_>
    <_>
      <internalNodes>
        0 -1 64634 -2.7979058027267456e-01</internalNodes>
      <leafValues>
        5.5733978748321533e-01 -1.3315461575984955e-01</leafValues></_>
    <_>
      <internalNodes>
        0 -1 98518 1.6854063142091036e-03</internalNodes>
      <leafValues>
        1.5609678626060486e-01 -6.7059755325317383e-01</leafValues></_>
    <_>
      <internalNodes>
        0 -1 119613 -9.4197997823357582e-03</internalNodes>
      <leafValues>
        6.0953283309936523e-01 -1.4645759761333466e-01</leafValues></_>
    <_>
      <internalNodes>
        0 -1 91957 -8.5676666349172592e-03</internalNodes>
      <leafValues>
        -8.9287704229354858e-01 8.3440311253070831e-02</leafValues></_>
    <_>
      <internalNodes>
        0 -1 136649 -2.5830296799540520e-03</internalNodes>
      <leafValues>
        -8.9960718154907227e-01 5.4382473230361938e-02</leafValues></_>
    <_>
      <internalNodes>
        0 -1 67685 8.0480845645070076e-04</internalNodes>
      <leafValues>
        -1.2523424625396729e-01 5.2459758520126343e-01</leafValues></_>
    <_>
      <internalNodes>
        0 -1 158992 -1.1042421683669090e-03</internalNodes>
      <leafValues>
        2.9881224036216736e-01 -2.0465455949306488e-01</leafValues></_>
    <_>
      <internalNodes>
        0 -1 35409 4.7797110164538026e-04</internalNodes>
      <leafValues>
        1.1534088104963303e-01 -5.7091009616851807e-01</leafValues></_>
    <_>
      <internalNodes>
        0 -1 38060 -6.4057100098580122e-04</internalNodes>
      <leafValues>
        2.6269859075546265e-01 -2.4374455213546753e-01</leafValues></_>
    <_>
      <internalNodes>
        0 -1 156675 5.8403104776516557e-04</internalNodes>
      <leafValues>
        1.2068261206150055e-01 -5.4767870903015137e-01</leafValues></_>
    <_>
      <internalNodes>
        0 -1 77509 5.7818177156150341e-03</internalNodes>
      <leafValues>
        -9.2680685222148895e-02 7.3026579618453979e-01</leafValues></_>
    <_>
      <internalNodes>
        0 -1 82883 6.6944863647222519e-04</internalNodes>
      <leafValues>
        9.6899539232254028e-02 -7.2289234399795532e-01</leafValues></_>
    <_>
      <internalNodes>
        0 -1 147089 -5.1637599244713783e-03</internalNodes>
      <leafValues>
        2.9071158170700073e-01 -2.4280679225921631e-01</leafValues></_>
    <_>
      <internalNodes>
        0 -1 119542 -2.8837177902460098e-02</internalNodes>
      <leafValues>
        -5.1677060127258301e-01 1.3537737727165222e-01</leafValues></_>
    <_>
      <internalNodes>
        0 -1 114218 -4.4071450829505920e-03</internalNodes>
      <leafValues>
        2.6561358571052551e-01 -2.5360208749771118e-01</leafValues></_></weakClassifiers></stage8>
</opencv_storage>
