<?xml version="1.0"?>
<opencv_storage>
<stage5>
  <maxWeakCount>16</maxWeakCount>
  <stageThreshold>-1.6748050451278687e+00</stageThreshold>
  <weakClassifiers>
    <_>
      <internalNodes>
        0 -1 85393 -4.3109625577926636e-02</internalNodes>
      <leafValues>
        3.0892449617385864e-01 -6.8704801797866821e-01</leafValues></_>
    <_>
      <internalNodes>
        0 -1 150987 -3.0185601208359003e-03</internalNodes>
      <leafValues>
        3.8319456577301025e-01 -3.3927720785140991e-01</leafValues></_>
    <_>
      <internalNodes>
        0 -1 23655 -1.1082404525950551e-03</internalNodes>
      <leafValues>
        -7.2661751508712769e-01 1.1679974943399429e-01</leafValues></_>
    <_>
      <internalNodes>
        0 -1 58245 2.4967357516288757e-02</internalNodes>
      <leafValues>
        -2.4674206972122192e-01 3.5538268089294434e-01</leafValues></_>
    <_>
      <internalNodes>
        0 -1 114813 1.0084594786167145e-01</internalNodes>
      <leafValues>
        -1.5880471467971802e-01 5.9248632192611694e-01</leafValues></_>
    <_>
      <internalNodes>
        0 -1 11101 1.7825616523623466e-03</internalNodes>
      <leafValues>
        1.3854083418846130e-01 -7.3008400201797485e-01</leafValues></_>
    <_>
      <internalNodes>
        0 -1 38462 3.7095852196216583e-02</internalNodes>
      <leafValues>
        -1.4407013356685638e-01 6.8511575460433960e-01</leafValues></_>
    <_>
      <internalNodes>
        0 -1 104796 -7.5369514524936676e-03</internalNodes>
      <leafValues>
        3.7557828426361084e-01 -2.0449189841747284e-01</leafValues></_>
    <_>
      <internalNodes>
        0 -1 96090 2.5386884808540344e-03</internalNodes>
      <leafValues>
        -1.3379764556884766e-01 5.7560366392135620e-01</leafValues></_>
    <_>
      <internalNodes>
        0 -1 143025 -7.0761604001745582e-04</internalNodes>
      <leafValues>
        -7.4578559398651123e-01 1.1188488453626633e-01</leafValues></_>
    <_>
      <internalNodes>
        0 -1 154242 4.7045692801475525e-02</internalNodes>
      <leafValues>
        -2.7735346555709839e-01 2.7890762686729431e-01</leafValues></_>
    <_>
      <internalNodes>
        0 -1 105365 -8.1069476436823606e-05</internalNodes>
      <leafValues>
        2.3779922723770142e-01 -3.1910696625709534e-01</leafValues></_>
    <_>
      <internalNodes>
        0 -1 158257 -1.1756566818803549e-03</internalNodes>
      <leafValues>
        -7.4796718358993530e-01 9.1311603784561157e-02</leafValues></_>
    <_>
      <internalNodes>
        0 -1 104439 -1.9804323092103004e-03</internalNodes>
      <leafValues>
        4.7546330094337463e-01 -1.6363701224327087e-01</leafValues></_>
    <_>
      <internalNodes>
        0 -1 138081 6.2809500377625227e-04</internalNodes>
      <leafValues>
        1.2399276345968246e-01 -6.5496295690536499e-01</leafValues></_>
    <_>
      <internalNodes>
        0 -1 73598 6.4477287232875824e-02</internalNodes>
      <leafValues>
        1.0202562808990479e-01 -6.7840540409088135e-01</leafValues></_></weakClassifiers></stage5>
</opencv_storage>
