<?xml version="1.0"?>
<opencv_storage>
<stage0>
  <maxWeakCount>9</maxWeakCount>
  <stageThreshold>-2.1037821769714355e+00</stageThreshold>
  <weakClassifiers>
    <_>
      <internalNodes>
        0 -1 150841 4.0069581009447575e-03</internalNodes>
      <leafValues>
        -7.5352603197097778e-01 3.8370370864868164e-01</leafValues></_>
    <_>
      <internalNodes>
        0 -1 103813 2.0481038838624954e-02</internalNodes>
      <leafValues>
        1.1976096034049988e-01 -8.0979698896408081e-01</leafValues></_>
    <_>
      <internalNodes>
        0 -1 152844 -2.4869434535503387e-02</internalNodes>
      <leafValues>
        -7.0245379209518433e-01 1.5785723924636841e-01</leafValues></_>
    <_>
      <internalNodes>
        0 -1 87324 4.6692244708538055e-02</internalNodes>
      <leafValues>
        -2.0341037213802338e-01 7.4260669946670532e-01</leafValues></_>
    <_>
      <internalNodes>
        0 -1 79010 8.3381514996290207e-03</internalNodes>
      <leafValues>
        -2.4736669659614563e-01 5.3639656305313110e-01</leafValues></_>
    <_>
      <internalNodes>
        0 -1 106178 -1.1062148027122021e-02</internalNodes>
      <leafValues>
        3.2266974449157715e-01 -4.0698999166488647e-01</leafValues></_>
    <_>
      <internalNodes>
        0 -1 97397 -5.2625796524807811e-04</internalNodes>
      <leafValues>
        -7.9898601770401001e-01 1.6884952783584595e-01</leafValues></_>
    <_>
      <internalNodes>
        0 -1 150992 -4.1741495952010155e-03</internalNodes>
      <leafValues>
        6.5263295173645020e-01 -2.0828744769096375e-01</leafValues></_>
    <_>
      <internalNodes>
        0 -1 136897 -1.1822193628177047e-03</internalNodes>
      <leafValues>
        -7.4916613101959229e-01 1.9888843595981598e-01</leafValues></_></weakClassifiers></stage0>
</opencv_storage>
