<?xml version="1.0"?>
<opencv_storage>
<cascade>
  <stageType>BOOST</stageType>
  <featureType>LBP</featureType>
  <height>24</height>
  <width>24</width>
  <stageParams>
    <boostType>GAB</boostType>
    <minHitRate>9.9500000476837158e-01</minHitRate>
    <maxFalseAlarm>5.0000000000000000e-01</maxFalseAlarm>
    <weightTrimRate>9.4999999999999996e-01</weightTrimRate>
    <maxDepth>1</maxDepth>
    <maxWeakCount>100</maxWeakCount></stageParams>
  <featureParams>
    <maxCatCount>256</maxCatCount>
    <featSize>1</featSize></featureParams>
  <stageNum>13</stageNum>
  <stages>
    <!-- stage 0 -->
    <_>
      <maxWeakCount>6</maxWeakCount>
      <stageThreshold>-1.9094849824905396e+00</stageThreshold>
      <weakClassifiers>
        <_>
          <internalNodes>
            0 -1 90 -16842753 -65537 -609746945 -589857 1341278207
            2145864639 1151156735 1577014271</internalNodes>
          <leafValues>
            -8.3380371332168579e-01 1.2128146737813950e-01</leafValues></_>
        <_>
          <internalNodes>
            0 -1 40 1351983786 1979694751 1364308731 -671089953
            2145254331 595038443 -10485765 1946139647</internalNodes>
          <leafValues>
            -7.7193897962570190e-01 3.0374643206596375e-01</leafValues></_>
        <_>
          <internalNodes>
            0 -1 38 2096962783 1602222047 -569740801 -1140958353 1330396
            -17155841 -1432420614 -17137682</internalNodes>
          <leafValues>
            -5.2147561311721802e-01 4.5333397388458252e-01</leafValues></_>
        <_>
          <internalNodes>
            0 -1 75 -850141953 92110255 250809583 246664959 1157385460
            737102303 13895885 230622719</internalNodes>
          <leafValues>
            -5.9896773099899292e-01 4.0086001157760620e-01</leafValues></_>
        <_>
          <internalNodes>
            0 -1 48 788467327 1056963551 -1025 -67177601 1285510397
            -39908807 -1125221251 -50529412</internalNodes>
          <leafValues>
            -5.2985852956771851e-01 4.4726058840751648e-01</leafValues></_>
        <_>
          <internalNodes>
            0 -1 58 1048518519 187137299 -715261065 -270534729 -18923915
            2003814679 -1196702716 -92799114</internalNodes>
          <leafValues>
            -6.0595411062240601e-01 3.4673187136650085e-01</leafValues></_></weakClassifiers></_>
    <!-- stage 1 -->
    <_>
      <maxWeakCount>7</maxWeakCount>
      <stageThreshold>-1.2917267084121704e+00</stageThreshold>
      <weakClassifiers>
        <_>
          <internalNodes>
            0 -1 52 -8388609 926154559 -45088897 891810583 -4194819
            -1054785 -526337 -8388609</internalNodes>
          <leafValues>
            -7.5104856491088867e-01 3.4244871139526367e-01</leafValues></_>
        <_>
          <internalNodes>
            0 -1 41 -252583182 -24833 4202512 -171984145 -5244933
            562901680 -1415201861 2147463867</internalNodes>
          <leafValues>
            -6.5767091512680054e-01 2.8890544176101685e-01</leafValues></_>
        <_>
          <internalNodes>
            0 -1 100 781135671 -1371753489 -129 -1426149832 -269518853
            -83888401 -268443649 -83955724</internalNodes>
          <leafValues>
            -6.0621291399002075e-01 3.6471518874168396e-01</leafValues></_>
        <_>
          <internalNodes>
            0 -1 31 392892175 525201807 -48383233 -33562625 1865370591
            1330047855 -1145852931 -170868738</internalNodes>
          <leafValues>
            -5.3366154432296753e-01 4.2524829506874084e-01</leafValues></_>
        <_>
          <internalNodes>
            0 -1 34 -537985188 1594552186 -7342593 1057879891 -8968
            -1100350647 -2442497 1026785135</internalNodes>
          <leafValues>
            -5.2614492177963257e-01 4.6822154521942139e-01</leafValues></_>
        <_>
          <internalNodes>
            0 -1 110 708804415 796825081 -1858404933 -67177475
            1509904245 -272630793 -68168347 -167772684</internalNodes>
          <leafValues>
            -5.7056117057800293e-01 3.7803348898887634e-01</leafValues></_>
        <_>
          <internalNodes>
            0 -1 99 -565510288 -1783629968 -538970883 -1122500913
            -1454518837 187669943 -543162897 264217275</internalNodes>
          <leafValues>
            -5.0050747394561768e-01 4.6054896712303162e-01</leafValues></_></weakClassifiers></_>
    <!-- stage 2 -->
    <_>
      <maxWeakCount>8</maxWeakCount>
      <stageThreshold>-1.5420711040496826e+00</stageThreshold>
      <weakClassifiers>
        <_>
          <internalNodes>
            0 -1 83 -1 -67174401 -108136449 -67436577 1442802687
            -67110501 1375686911 -134219777</internalNodes>
          <leafValues>
            -7.4088954925537109e-01 1.9461581110954285e-01</leafValues></_>
        <_>
          <internalNodes>
            0 -1 3 -922890753 -34472037 -136843301 -68092047 205458623
            -268890201 -371494913 -32781</internalNodes>
          <leafValues>
            -4.5939266681671143e-01 4.4360604882240295e-01</leafValues></_>
        <_>
          <internalNodes>
            0 -1 39 239013599 -2115105 -254117921 -1359856898 83380445
            -1073825121 -320930817 -50671618</internalNodes>
          <leafValues>
            -4.9205616116523743e-01 3.8516116142272949e-01</leafValues></_>
        <_>
          <internalNodes>
            0 -1 10 -425276689 -201347377 -1133857119 -8426921
            -378304769 -536901889 -25720961 -589245</internalNodes>
          <leafValues>
            -3.8323491811752319e-01 4.7815844416618347e-01</leafValues></_>
        <_>
          <internalNodes>
            0 -1 62 -118505402 1191111679 -1067648306 -520093697
            -4259516 1454243151 -134226354 -436207889</internalNodes>
          <leafValues>
            -4.9800634384155273e-01 3.6762049794197083e-01</leafValues></_>
        <_>
          <internalNodes>
            0 -1 105 -1348468941 -1884621475 -278931009 -6889495
            1240691701 -1076113745 -540285484 -318833680</internalNodes>
          <leafValues>
            -4.8797380924224854e-01 3.8509091734886169e-01</leafValues></_>
        <_>
          <internalNodes>
            0 -1 56 -14418245 1895870219 -1256728773 2064742929
            1567454623 256859567 -68796881 2134080315</internalNodes>
          <leafValues>
            -4.3801233172416687e-01 4.1406273841857910e-01</leafValues></_>
        <_>
          <internalNodes>
            0 -1 103 69737816 1027090910 -573046819 536771056 783418876
            1000371416 716833759 805259516</internalNodes>
          <leafValues>
            -6.2160062789916992e-01 2.9575008153915405e-01</leafValues></_></weakClassifiers></_>
    <!-- stage 3 -->
    <_>
      <maxWeakCount>9</maxWeakCount>
      <stageThreshold>-1.5558520555496216e+00</stageThreshold>
      <weakClassifiers>
        <_>
          <internalNodes>
            0 -1 82 -1 -2427433 1867743231 -134220801 1442778623 -38913
            1174357503 -536879105</internalNodes>
          <leafValues>
            -7.3329603672027588e-01 1.3326109945774078e-01</leafValues></_>
        <_>
          <internalNodes>
            0 -1 49 -143656459 859823035 -1594359873 287567679
            -168299019 -572550147 -277635597 825490383</internalNodes>
          <leafValues>
            -5.9225356578826904e-01 2.7920725941658020e-01</leafValues></_>
        <_>
          <internalNodes>
            0 -1 20 -290787346 -552937473 -37316129 -1490289073
            -272634389 -607125761 -121287411 1931966223</internalNodes>
          <leafValues>
            -5.0965279340744019e-01 3.2701981067657471e-01</leafValues></_>
        <_>
          <internalNodes>
            0 -1 21 185446350 -572555265 1599018527 1071404925 257788895
            1599463351 -2098209 1911946109</internalNodes>
          <leafValues>
            -5.5799096822738647e-01 3.1045052409172058e-01</leafValues></_>
        <_>
          <internalNodes>
            0 -1 15 711937807 541781675 -50381505 676766559 1853363791
            -2124506241 -70861825 -394264961</internalNodes>
          <leafValues>
            -5.2926373481750488e-01 3.0852714180946350e-01</leafValues></_>
        <_>
          <internalNodes>
            0 -1 88 -286851082 -160367553 2103147221 -134223941
            1154842609 -155063598 1396528885 1442665941</internalNodes>
          <leafValues>
            -5.2105569839477539e-01 3.0606952309608459e-01</leafValues></_>
        <_>
          <internalNodes>
            0 -1 57 1901131517 2130244487 72614485 928766463 -6062089
            441213476 1434468147 518895615</internalNodes>
          <leafValues>
            -4.8939016461372375e-01 3.1195080280303955e-01</leafValues></_>
        <_>
          <internalNodes>
            0 -1 54 1996449403 242410207 -597632035 -299993634
            -105220008 -1086516997 -254124036 -5181452</internalNodes>
          <leafValues>
            -5.0873655080795288e-01 3.0990651249885559e-01</leafValues></_>
        <_>
          <internalNodes>
            0 -1 26 -371740985 2077086197 -644817545 -168438786
            1138989991 2090975500 1469970877 -3097228</internalNodes>
          <leafValues>
            -4.0313088893890381e-01 3.9434257149696350e-01</leafValues></_></weakClassifiers></_>
    <!-- stage 4 -->
    <_>
      <maxWeakCount>9</maxWeakCount>
      <stageThreshold>-1.4036515951156616e+00</stageThreshold>
      <weakClassifiers>
        <_>
          <internalNodes>
            0 -1 8 -251660545 -218630319 -301991425 -100925487 15663279
            708777760 -301998081 -1</internalNodes>
          <leafValues>
            -7.2899883985519409e-01 3.3203125000000000e-02</leafValues></_>
        <_>
          <internalNodes>
            0 -1 92 -6145 -50344993 -266632646 -218106882 1743733311
            2079310207 1642820724 -169869377</internalNodes>
          <leafValues>
            -5.4545253515243530e-01 2.9103776812553406e-01</leafValues></_>
        <_>
          <internalNodes>
            0 -1 114 -1154746445 -1222050512 973041009 -134176
            -1610629121 -285425667 -1623624207 -541067279</internalNodes>
          <leafValues>
            -3.9434900879859924e-01 4.6892702579498291e-01</leafValues></_>
        <_>
          <internalNodes>
            0 -1 44 803013724 -575351 -544325763 -138462452 -1291972616
            -2449234 -302367842 -335672680</internalNodes>
          <leafValues>
            -4.9503621459007263e-01 3.5752311348915100e-01</leafValues></_>
        <_>
          <internalNodes>
            0 -1 32 1968491244 1475735230 -209196626 -8672018 -183767123
            902671276 -4473877 939371146</internalNodes>
          <leafValues>
            -5.9562772512435913e-01 3.1172817945480347e-01</leafValues></_>
        <_>
          <internalNodes>
            0 -1 28 249432840 -149265600 659433554 -36507708 2136689439
            -17377 -537956754 -278705</internalNodes>
          <leafValues>
            -5.7755267620086670e-01 2.6074352860450745e-01</leafValues></_>
        <_>
          <internalNodes>
            0 -1 70 2130851607 688537499 -74256417 -5251073 176320507
            -1367618049 679527926 -1392713733</internalNodes>
          <leafValues>
            -4.7584924101829529e-01 3.4481269121170044e-01</leafValues></_>
        <_>
          <internalNodes>
            0 -1 19 -17380106 -605297121 -17414531 -267714 -598337
            -604015361 -92846213 -8946574</internalNodes>
          <leafValues>
            -3.6034473776817322e-01 4.4280824065208435e-01</leafValues></_>
        <_>
          <internalNodes>
            0 -1 87 1609613198 1773580691 -246703683 -68172293
            1078032235 -1444355589 1085889386 1577010175</internalNodes>
          <leafValues>
            -5.2204638719558716e-01 3.1830775737762451e-01</leafValues></_></weakClassifiers></_>
    <!-- stage 5 -->
    <_>
      <maxWeakCount>9</maxWeakCount>
      <stageThreshold>-1.4736225605010986e+00</stageThreshold>
      <weakClassifiers>
        <_>
          <internalNodes>
            0 -1 43 -526337 521533445 -1823885443 -1252133027 -240141313
            -338699337 -206983732 -8395285</internalNodes>
          <leafValues>
            -7.3001039028167725e-01 -3.4971226006746292e-02</leafValues></_>
        <_>
          <internalNodes>
            0 -1 18 584794613 729076816 -94896713 -1289734896 95357243
            -1431849925 -272891905 -72090765</internalNodes>
          <leafValues>
            -5.2808105945587158e-01 2.6049414277076721e-01</leafValues></_>
        <_>
          <internalNodes>
            0 -1 109 1057439507 1059254577 -653849611 -144884912
            -610288646 -1156673141 948899541 -1912881996</internalNodes>
          <leafValues>
            -5.0416290760040283e-01 3.2588779926300049e-01</leafValues></_>
        <_>
          <internalNodes>
            0 -1 47 -287371649 -78113937 1751094527 1912614042
            -104048559 -67558575 -594917316 -300888736</internalNodes>
          <leafValues>
            -5.4372668266296387e-01 2.9881888628005981e-01</leafValues></_>
        <_>
          <internalNodes>
            0 -1 84 -68685985 685197023 -315243297 716371662 1164903711
            136268099 1110405023 1207634811</internalNodes>
          <leafValues>
            -5.1673895120620728e-01 3.2640293240547180e-01</leafValues></_>
        <_>
          <internalNodes>
            0 -1 9 -419502337 -135528709 -1342453137 -25544190 678682619
            -151001858 -1888244741 -75561865</internalNodes>
          <leafValues>
            -3.3729001879692078e-01 4.6496397256851196e-01</leafValues></_>
        <_>
          <internalNodes>
            0 -1 68 -270555333 711131085 -1019097982 582125570
            1619785963 1811622318 -150211841 -218893338</internalNodes>
          <leafValues>
            -4.6018111705780029e-01 3.4067249298095703e-01</leafValues></_>
        <_>
          <internalNodes>
            0 -1 108 -1272906384 470913168 -1021388867 -1218603275
            -888486996 -1165234007 -1181994567 -1080078691</internalNodes>
          <leafValues>
            -4.1939523816108704e-01 4.0216922760009766e-01</leafValues></_>
        <_>
          <internalNodes>
            0 -1 37 1895346384 1358949855 4206885 857690815 -91514183
            1158325000 -740611169 173999550</internalNodes>
          <leafValues>
            -5.8235692977905273e-01 2.4933552742004395e-01</leafValues></_></weakClassifiers></_>
    <!-- stage 6 -->
    <_>
      <maxWeakCount>10</maxWeakCount>
      <stageThreshold>-1.9214949607849121e+00</stageThreshold>
      <weakClassifiers>
        <_>
          <internalNodes>
            0 -1 7 -590026833 -570907441 -5001329 -2160902 -258674757
            -691921945 -23090401 -61537</internalNodes>
          <leafValues>
            -7.2358447313308716e-01 -5.7683840394020081e-02</leafValues></_>
        <_>
          <internalNodes>
            0 -1 64 -10689 591394603 -2112699502 547553235 -1177841078
            889807115 -11296300 1998061511</internalNodes>
          <leafValues>
            -6.4097440242767334e-01 1.5868055820465088e-01</leafValues></_>
        <_>
          <internalNodes>
            0 -1 107 -1179173611 -69775237 -565586947 -1512402532
            -543515179 -105385777 -1159923203 -857935364</internalNodes>
          <leafValues>
            -4.5700871944427490e-01 3.1889548897743225e-01</leafValues></_>
        <_>
          <internalNodes>
            0 -1 4 1290716665 -55066633 -1426194635 -1745535119
            147656501 -1107853315 -1914839073 -41129</internalNodes>
          <leafValues>
            -3.8507533073425293e-01 3.9888215065002441e-01</leafValues></_>
        <_>
          <internalNodes>
            0 -1 59 1492713439 324113774 84813823 880269583 1978630141
            2091226972 1136947387 1885665023</internalNodes>
          <leafValues>
            -4.2250427603721619e-01 3.6934521794319153e-01</leafValues></_>
        <_>
          <internalNodes>
            0 -1 12 -60931330 -18945298 1717855450 -495785105 -204914509
            -374181897 1995649743 -14156353</internalNodes>
          <leafValues>
            -4.2543423175811768e-01 3.4662330150604248e-01</leafValues></_>
        <_>
          <internalNodes>
            0 -1 98 20392208 1600049627 532814384 259334800 -675299609
            -624954708 -305137163 -269752972</internalNodes>
          <leafValues>
            -5.1229208707809448e-01 2.8539055585861206e-01</leafValues></_>
        <_>
          <internalNodes>
            0 -1 106 64634641 -1971127418 -746460203 -474083021
            -913698371 -1578399349 -1013983183 -858197776</internalNodes>
          <leafValues>
            -5.5167245864868164e-01 2.3202973604202271e-01</leafValues></_>
        <_>
          <internalNodes>
            0 -1 27 1062582478 2010303956 -1824931910 -105803663
            402190222 1474824428 -1064651350 -1291863557</internalNodes>
          <leafValues>
            -5.2385145425796509e-01 2.4509990215301514e-01</leafValues></_>
        <_>
          <internalNodes>
            0 -1 113 1067028640 -1970782080 33686616 1498390679
            -1458325087 -1702346624 721515173 -282854695</internalNodes>
          <leafValues>
            -4.3826165795326233e-01 3.0332392454147339e-01</leafValues></_></weakClassifiers></_>
    <!-- stage 7 -->
    <_>
      <maxWeakCount>10</maxWeakCount>
      <stageThreshold>-1.9790138006210327e+00</stageThreshold>
      <weakClassifiers>
        <_>
          <internalNodes>
            0 -1 2 -100672265 -134553904 -157290761 -263181 210699503
            34428705 1285376239 -8449</internalNodes>
          <leafValues>
            -7.1796768903732300e-01 -6.8030238151550293e-02</leafValues></_>
        <_>
          <internalNodes>
            0 -1 45 2139085431 423045980 366855933 1059046775
            -2017468424 2059176375 -1909784604 566221791</internalNodes>
          <leafValues>
            -5.7292306423187256e-01 1.8618871271610260e-01</leafValues></_>
        <_>
          <internalNodes>
            0 -1 104 1068119860 -1088957580 -1718021641 -65412 707456686
            -1081464158 448576254 -1347543620</internalNodes>
          <leafValues>
            -4.5621633529663086e-01 2.9314595460891724e-01</leafValues></_>
        <_>
          <internalNodes>
            0 -1 60 234827183 1071633343 1562221563 -10487558 2073786367
            1551861963 -3489893 -239813658</internalNodes>
          <leafValues>
            -3.9440989494323730e-01 3.2191735506057739e-01</leafValues></_>
        <_>
          <internalNodes>
            0 -1 46 182406519 773591315 -1626155457 239383262 1245330553
            -107041621 -74657928 -21693644</internalNodes>
          <leafValues>
            -5.6547117233276367e-01 2.4279007315635681e-01</leafValues></_>
        <_>
          <internalNodes>
            0 -1 73 -540086369 584189631 264231835 719275643 -602452387
            -1664650311 17715039 208886751</internalNodes>
          <leafValues>
            -4.6281990408897400e-01 2.8010401129722595e-01</leafValues></_>
        <_>
          <internalNodes>
            0 -1 55 1451163685 706402550 -1073485665 716165823
            -134017013 -558137334 -800807061 -97715666</internalNodes>
          <leafValues>
            -5.1755660772323608e-01 2.4467852711677551e-01</leafValues></_>
        <_>
          <internalNodes>
            0 -1 101 -1210597901 -2037589859 -745343723 -143732016
            1397446999 -816676726 -1968836108 -822308044</internalNodes>
          <leafValues>
            -4.6420991420745850e-01 2.6018610596656799e-01</leafValues></_>
        <_>
          <internalNodes>
            0 -1 111 -711650279 -685918171 -1291648001 -1693461668
            -112885265 -1202945975 -1125216562 -1599543121</internalNodes>
          <leafValues>
            -3.6892026662826538e-01 3.4628710150718689e-01</leafValues></_>
        <_>
          <internalNodes>
            0 -1 11 2021887 -1347007729 102501302 36334579 918835317
            -561287165 331747823 1005789007</internalNodes>
          <leafValues>
            -5.2934461832046509e-01 2.5946149230003357e-01</leafValues></_></weakClassifiers></_>
    <!-- stage 8 -->
    <_>
      <maxWeakCount>10</maxWeakCount>
      <stageThreshold>-1.8724715709686279e+00</stageThreshold>
      <weakClassifiers>
        <_>
          <internalNodes>
            0 -1 25 -50860289 -539764518 -2111898657 -111482419
            -22003510 -73727830 -81859841 -1061</internalNodes>
          <leafValues>
            -7.0398640632629395e-01 -1.0384215973317623e-02</leafValues></_>
        <_>
          <internalNodes>
            0 -1 50 -183500801 856789791 -1116831201 1059320183
            -2113954527 1542293703 2106277900 1599846847</internalNodes>
          <leafValues>
            -5.1734006404876709e-01 2.4097143113613129e-01</leafValues></_>
        <_>
          <internalNodes>
            0 -1 67 783756069 796899295 -12086931 -37798401 -960695566
            -1231296005 1143214260 -1262717265</internalNodes>
          <leafValues>
            -4.8155978322029114e-01 2.7948927879333496e-01</leafValues></_>
        <_>
          <internalNodes>
            0 -1 66 -206047233 1073610751 2130685951 -171966769
            1577056249 879075326 -2305 1895104203</internalNodes>
          <leafValues>
            -3.2202172279357910e-01 3.7636289000511169e-01</leafValues></_>
        <_>
          <internalNodes>
            0 -1 91 -413161854 -389264442 -653663088 -136862994
            1879831123 1614848123 1905996148 -169880610</internalNodes>
          <leafValues>
            -4.1286307573318481e-01 3.1823936104774475e-01</leafValues></_>
        <_>
          <internalNodes>
            0 -1 93 1667477283 878105062 -717142605 872881007 1786589079
            136413189 -179967505 1298462910</internalNodes>
          <leafValues>
            -4.0843343734741211e-01 3.0281391739845276e-01</leafValues></_>
        <_>
          <internalNodes>
            0 -1 33 -2108030281 1859129754 1568704965 -68889339
            -643824677 -88080211 -391182625 -1004784</internalNodes>
          <leafValues>
            -4.3343716859817505e-01 3.0577948689460754e-01</leafValues></_>
        <_>
          <internalNodes>
            0 -1 17 192884535 639139120 2140524031 673503234 1185641751
            89878595 1461409583 1329586971</internalNodes>
          <leafValues>
            -5.4737097024917603e-01 2.2674959897994995e-01</leafValues></_>
        <_>
          <internalNodes>
            0 -1 13 788212543 -1440883908 -803483345 1687335897
            -2131801753 -113573233 -125117737 -268502019</internalNodes>
          <leafValues>
            -4.8126962780952454e-01 2.4177287518978119e-01</leafValues></_>
        <_>
          <internalNodes>
            0 -1 36 566438563 2079650757 566468640 1942293197 1452265455
            1430638858 -879756289 589426448</internalNodes>
          <leafValues>
            -5.6694042682647705e-01 2.0898044109344482e-01</leafValues></_></weakClassifiers></_>
    <!-- stage 9 -->
    <_>
      <maxWeakCount>7</maxWeakCount>
      <stageThreshold>-1.4439089298248291e+00</stageThreshold>
      <weakClassifiers>
        <_>
          <internalNodes>
            0 -1 0 -5505057 -141832051 -909942338 -175521619 -1467221553
            -1253769068 172951757 -677658385</internalNodes>
          <leafValues>
            -6.8278825283050537e-01 3.7650322914123535e-01</leafValues></_>
        <_>
          <internalNodes>
            0 -1 63 -253438768 -183545854 541378040 -547364195
            -484381753 -2089287421 554076683 856932314</internalNodes>
          <leafValues>
            -5.5647975206375122e-01 2.7738839387893677e-01</leafValues></_>
        <_>
          <internalNodes>
            0 -1 38 576262399 -107581310 17846353 358219854 1209008364
            746602664 -636949798 -1090901442</internalNodes>
          <leafValues>
            -5.1689344644546509e-01 3.2728719711303711e-01</leafValues></_>
        <_>
          <internalNodes>
            0 -1 116 45416753 1586201760 -1853814579 -3279913 148529924
            -619839421 1627410469 -41296783</internalNodes>
          <leafValues>
            -5.8987975120544434e-01 2.9310905933380127e-01</leafValues></_>
        <_>
          <internalNodes>
            0 -1 16 719261603 945919380 211135543 45132082 805568686
            746719267 -301979138 580994082</internalNodes>
          <leafValues>
            -6.1331641674041748e-01 2.8623291850090027e-01</leafValues></_>
        <_>
          <internalNodes>
            0 -1 80 -2144143927 -216033600 -1333407483 -981421669 446679
            -1139830750 -1180032081 1103520389</internalNodes>
          <leafValues>
            -4.4051930308341980e-01 4.0528577566146851e-01</leafValues></_>
        <_>
          <internalNodes>
            0 -1 77 -385412506 1287857257 9593298 -1965768430
            -1710554793 -888438761 -1407459263 -822286284</internalNodes>
          <leafValues>
            -5.6411808729171753e-01 2.6598218083381653e-01</leafValues></_></weakClassifiers></_>
    <!-- stage 10 -->
    <_>
      <maxWeakCount>12</maxWeakCount>
      <stageThreshold>-1.8652155399322510e+00</stageThreshold>
      <weakClassifiers>
        <_>
          <internalNodes>
            0 -1 95 -508559426 2059581430 -1207934357 -81962450
            1493952510 437161679 1164642255 1439106799</internalNodes>
          <leafValues>
            -7.7720922231674194e-01 -2.6818066835403442e-01</leafValues></_>
        <_>
          <internalNodes>
            0 -1 65 -203423941 324246035 -217456361 1363399675
            2043411311 590061922 -92030144 1979182079</internalNodes>
          <leafValues>
            -4.8127484321594238e-01 2.1500825881958008e-01</leafValues></_>
        <_>
          <internalNodes>
            0 -1 102 -1105512143 -1080322575 -1153183403 -1346318251
            -1094065675 -68053622 -1685323811 -352529483</internalNodes>
          <leafValues>
            -4.0586254000663757e-01 2.9039704799652100e-01</leafValues></_>
        <_>
          <internalNodes>
            0 -1 97 -814925808 -544276469 -1982514862 -1377886136
            -1342229553 -1010091993 -442516625 -1476713814</internalNodes>
          <leafValues>
            -4.2493456602096558e-01 2.6484820246696472e-01</leafValues></_>
        <_>
          <internalNodes>
            0 -1 5 -220217102 -1653416976 -297279139 -1109428400
            11468966 36113937 1168099503 -809806245</internalNodes>
          <leafValues>
            -3.6478105187416077e-01 3.3424624800682068e-01</leafValues></_>
        <_>
          <internalNodes>
            0 -1 69 -86257826 -179100713 1075402744 1128452447
            1909611332 1696727117 -70394020 -143461518</internalNodes>
          <leafValues>
            -3.8451582193374634e-01 3.0033081769943237e-01</leafValues></_>
        <_>
          <internalNodes>
            0 -1 14 1163700907 1493142783 -3566389 -2032144137 399093567
            -1476792534 -584327309 1945072255</internalNodes>
          <leafValues>
            -4.0918081998825073e-01 2.7422198653221130e-01</leafValues></_>
        <_>
          <internalNodes>
            0 -1 24 -27357476 -27267843 1293732479 -109923213 -39826690
            2108377275 -216369702 1604275151</internalNodes>
          <leafValues>
            -3.8818973302841187e-01 2.7510628104209900e-01</leafValues></_>
        <_>
          <internalNodes>
            0 -1 86 -8392914 2007625639 -1560317404 -524310 2147479399
            1182793715 -134219778 -780664833</internalNodes>
          <leafValues>
            -2.7123844623565674e-01 4.1471263766288757e-01</leafValues></_>
        <_>
          <internalNodes>
            0 -1 85 -1481951206 772720640 -1048325510 -294325494
            59084157 595976635 147413941 -324862616</internalNodes>
          <leafValues>
            -5.3790706396102905e-01 1.9774983823299408e-01</leafValues></_>
        <_>
          <internalNodes>
            0 -1 81 -1019019784 2114081208 -472544300 -315879204
            1594960849 -1815092269 1776647649 1558148090</internalNodes>
          <leafValues>
            -4.7332236170768738e-01 2.2398231923580170e-01</leafValues></_>
        <_>
          <internalNodes>
            0 -1 79 987456631 571673435 -748757265 781050803 1288052982
            1752106079 -1395244681 -323499653</internalNodes>
          <leafValues>
            -4.2807739973068237e-01 2.5961729884147644e-01</leafValues></_></weakClassifiers></_>
    <!-- stage 11 -->
    <_>
      <maxWeakCount>12</maxWeakCount>
      <stageThreshold>-1.5176868438720703e+00</stageThreshold>
      <weakClassifiers>
        <_>
          <internalNodes>
            0 -1 96 -5244929 1976275103 -1862233320 -228838737 31206319
            193495179 1082754031 1174404079</internalNodes>
          <leafValues>
            -7.6262360811233521e-01 -1.8690145015716553e-01</leafValues></_>
        <_>
          <internalNodes>
            0 -1 53 -1359008752 -2371373 -868076259 -549207731 -24404268
            -511496055 -930926688 -1411470272</internalNodes>
          <leafValues>
            -5.2949935197830200e-01 1.6953836381435394e-01</leafValues></_>
        <_>
          <internalNodes>
            0 -1 0 -16058408 -1214016086 -2000132012 -324419187
            486556805 -1239326971 147587272 -437566234</internalNodes>
          <leafValues>
            -4.0287438035011292e-01 2.9946848750114441e-01</leafValues></_>
        <_>
          <internalNodes>
            0 -1 112 2039675952 -101974224 -33555 -538182036 -869562897
            771108734 -1095107089 -1398036818</internalNodes>
          <leafValues>
            -3.2191312313079834e-01 3.6525413393974304e-01</leafValues></_>
        <_>
          <internalNodes>
            0 -1 29 -140515521 408895953 -15606562 -1295984334
            1227495775 -901251069 -1090391298 -8987034</internalNodes>
          <leafValues>
            -3.3009985089302063e-01 3.6996570229530334e-01</leafValues></_>
        <_>
          <internalNodes>
            0 -1 61 -226045198 -529823138 1916901984 -60964773 654807202
            1867448836 663704407 1672297018</internalNodes>
          <leafValues>
            -5.0645083189010620e-01 2.5105056166648865e-01</leafValues></_>
        <_>
          <internalNodes>
            0 -1 35 -99135280 408032706 -2130705969 462860362 -120990312
            294781632 2047404250 962316379</internalNodes>
          <leafValues>
            -4.5147761702537537e-01 2.5613927841186523e-01</leafValues></_>
        <_>
          <internalNodes>
            0 -1 71 46474891 647691650 -947699425 -350818146 2051230524
            1628079040 864500172 -906719612</internalNodes>
          <leafValues>
            -5.2389723062515259e-01 2.2528751194477081e-01</leafValues></_>
        <_>
          <internalNodes>
            0 -1 104 640595232 -569163688 -209694211 -1650783867
            -1172169806 -1312160640 -1015008340 -1477821908</internalNodes>
          <leafValues>
            -4.3962663412094116e-01 2.6201328635215759e-01</leafValues></_>
        <_>
          <internalNodes>
            0 -1 6 1078970083 1989640920 -2074678709 -489271195
            -2137032094 -1571088285 1854098154 -252446240</internalNodes>
          <leafValues>
            -3.7787336111068726e-01 3.2538747787475586e-01</leafValues></_>
        <_>
          <internalNodes>
            0 -1 30 -683330738 1531040195 256512954 -1914862085
            -536299301 442048680 839476885 1439484539</internalNodes>
          <leafValues>
            -5.2434283494949341e-01 2.0932851731777191e-01</leafValues></_>
        <_>
          <internalNodes>
            0 -1 54 639062751 -1877639081 285323509 -1165868841
            1894791744 -1155432318 -1719601118 -548883696</internalNodes>
          <leafValues>
            -4.7819620370864868e-01 2.3914219439029694e-01</leafValues></_></weakClassifiers></_>
    <!-- stage 12 -->
    <_>
      <maxWeakCount>12</maxWeakCount>
      <stageThreshold>-1.9569758176803589e+00</stageThreshold>
      <weakClassifiers>
        <_>
          <internalNodes>
            0 -1 89 -50073174 -537952052 402997390 -586034945 1393294059
            1375838344 -1325286661 -69213249</internalNodes>
          <leafValues>
            -6.5856140851974487e-01 1.5109170973300934e-01</leafValues></_>
        <_>
          <internalNodes>
            0 -1 23 106748885 -2015575619 -312984647 187189139
            -1226757916 -336887213 -586241249 723718377</internalNodes>
          <leafValues>
            -5.0217258930206299e-01 2.3698630928993225e-01</leafValues></_>
        <_>
          <internalNodes>
            0 -1 76 -16518297 1899238157 -847121593 -1275959165
            1350699263 25303577 9658495 829945531</internalNodes>
          <leafValues>
            -3.7329977750778198e-01 3.2602870464324951e-01</leafValues></_>
        <_>
          <internalNodes>
            0 -1 78 1073676255 276315892 -33153 -1221017605 91715573
            -1242202243 -1342239268 -1651572865</internalNodes>
          <leafValues>
            -3.2351765036582947e-01 3.8199850916862488e-01</leafValues></_>
        <_>
          <internalNodes>
            0 -1 94 39494314 1360038537 136413712 -721059325 1879171975
            -1610612736 1645044271 1431642823</internalNodes>
          <leafValues>
            -4.0163692831993103e-01 3.3778685331344604e-01</leafValues></_>
        <_>
          <internalNodes>
            0 -1 72 -32834809 -1744154611 -1870413601 -581762939
            1646973020 1225392257 1124348904 2088696207</internalNodes>
          <leafValues>
            -3.7934684753417969e-01 3.4949192404747009e-01</leafValues></_>
        <_>
          <internalNodes>
            0 -1 115 -1860485871 -1852732416 1090535553 -372125552
            598294737 -1425995744 1216567345 -625045404</internalNodes>
          <leafValues>
            -4.7445157170295715e-01 2.6051369309425354e-01</leafValues></_>
        <_>
          <internalNodes>
            0 -1 1 -674272257 -202557967 -19978259 -578857643
            -1915245877 -788572864 617252579 -542654793</internalNodes>
          <leafValues>
            -2.4030119180679321e-01 5.5511963367462158e-01</leafValues></_>
        <_>
          <internalNodes>
            0 -1 22 -796876091 -1616711719 -172121 -10125419 -556682019
            -1759051777 1473224183 -34255523</internalNodes>
          <leafValues>
            -2.9612722992897034e-01 4.3143388628959656e-01</leafValues></_>
        <_>
          <internalNodes>
            0 -1 74 756883719 609386627 -1727723383 -1466466239
            -1688517773 -401768317 -343674077 -391268154</internalNodes>
          <leafValues>
            -5.6479483842849731e-01 2.5163701176643372e-01</leafValues></_>
        <_>
          <internalNodes>
            0 -1 51 -751445007 -737096959 -2092886252 889550661 16779451
            428539905 163914607 23026411</internalNodes>
          <leafValues>
            -4.5271527767181396e-01 3.0280399322509766e-01</leafValues></_>
        <_>
          <internalNodes>
            0 -1 42 -21871464 -46919748 -268505095 2008555159 746094324
            -1073807361 -1615011909 -541114737</internalNodes>
          <leafValues>
            -3.1262615323066711e-01 4.2673221230506897e-01</leafValues></_></weakClassifiers></_></stages>
  <features>
    <_>
      <rect>
        0 0 3 4</rect></_>
    <_>
      <rect>
        0 0 4 6</rect></_>
    <_>
      <rect>
        0 0 5 4</rect></_>
    <_>
      <rect>
        0 0 7 4</rect></_>
    <_>
      <rect>
        0 0 7 5</rect></_>
    <_>
      <rect>
        0 1 5 4</rect></_>
    <_>
      <rect>
        0 4 3 4</rect></_>
    <_>
      <rect>
        0 8 8 3</rect></_>
    <_>
      <rect>
        1 0 5 5</rect></_>
    <_>
      <rect>
        1 6 3 4</rect></_>
    <_>
      <rect>
        1 7 3 3</rect></_>
    <_>
      <rect>
        1 8 3 5</rect></_>
    <_>
      <rect>
        1 10 3 2</rect></_>
    <_>
      <rect>
        1 19 1 1</rect></_>
    <_>
      <rect>
        2 2 7 7</rect></_>
    <_>
      <rect>
        2 16 3 2</rect></_>
    <_>
      <rect>
        3 0 6 3</rect></_>
    <_>
      <rect>
        3 1 4 2</rect></_>
    <_>
      <rect>
        3 1 5 3</rect></_>
    <_>
      <rect>
        3 8 2 3</rect></_>
    <_>
      <rect>
        3 8 3 2</rect></_>
    <_>
      <rect>
        4 2 6 4</rect></_>
    <_>
      <rect>
        4 6 2 2</rect></_>
    <_>
      <rect>
        4 8 5 3</rect></_>
    <_>
      <rect>
        4 9 2 2</rect></_>
    <_>
      <rect>
        4 12 2 1</rect></_>
    <_>
      <rect>
        5 8 1 1</rect></_>
    <_>
      <rect>
        5 9 6 2</rect></_>
    <_>
      <rect>
        5 16 3 2</rect></_>
    <_>
      <rect>
        5 20 2 1</rect></_>
    <_>
      <rect>
        6 2 6 4</rect></_>
    <_>
      <rect>
        6 7 6 1</rect></_>
    <_>
      <rect>
        6 7 6 3</rect></_>
    <_>
      <rect>
        6 8 1 1</rect></_>
    <_>
      <rect>
        6 9 2 2</rect></_>
    <_>
      <rect>
        6 11 2 1</rect></_>
    <_>
      <rect>
        6 11 5 2</rect></_>
    <_>
      <rect>
        6 11 5 4</rect></_>
    <_>
      <rect>
        6 12 1 1</rect></_>
    <_>
      <rect>
        6 13 1 1</rect></_>
    <_>
      <rect>
        7 3 5 6</rect></_>
    <_>
      <rect>
        7 10 5 4</rect></_>
    <_>
      <rect>
        7 11 1 1</rect></_>
    <_>
      <rect>
        7 11 2 2</rect></_>
    <_>
      <rect>
        7 12 1 1</rect></_>
    <_>
      <rect>
        7 12 2 1</rect></_>
    <_>
      <rect>
        7 19 1 1</rect></_>
    <_>
      <rect>
        7 21 1 1</rect></_>
    <_>
      <rect>
        8 8 1 1</rect></_>
    <_>
      <rect>
        8 9 2 3</rect></_>
    <_>
      <rect>
        8 9 2 4</rect></_>
    <_>
      <rect>
        8 9 3 5</rect></_>
    <_>
      <rect>
        8 10 2 3</rect></_>
    <_>
      <rect>
        8 14 1 1</rect></_>
    <_>
      <rect>
        8 20 1 1</rect></_>
    <_>
      <rect>
        9 9 1 1</rect></_>
    <_>
      <rect>
        9 10 2 4</rect></_>
    <_>
      <rect>
        9 12 4 4</rect></_>
    <_>
      <rect>
        9 13 1 1</rect></_>
    <_>
      <rect>
        9 15 4 3</rect></_>
    <_>
      <rect>
        10 7 3 1</rect></_>
    <_>
      <rect>
        10 9 3 4</rect></_>
    <_>
      <rect>
        10 10 1 1</rect></_>
    <_>
      <rect>
        10 11 4 4</rect></_>
    <_>
      <rect>
        10 13 1 1</rect></_>
    <_>
      <rect>
        10 14 1 1</rect></_>
    <_>
      <rect>
        10 20 3 1</rect></_>
    <_>
      <rect>
        11 1 4 3</rect></_>
    <_>
      <rect>
        11 14 1 1</rect></_>
    <_>
      <rect>
        11 18 1 1</rect></_>
    <_>
      <rect>
        12 1 4 4</rect></_>
    <_>
      <rect>
        12 6 1 2</rect></_>
    <_>
      <rect>
        13 3 3 3</rect></_>
    <_>
      <rect>
        14 7 3 5</rect></_>
    <_>
      <rect>
        14 8 1 1</rect></_>
    <_>
      <rect>
        14 10 2 4</rect></_>
    <_>
      <rect>
        14 12 2 2</rect></_>
    <_>
      <rect>
        14 14 1 1</rect></_>
    <_>
      <rect>
        14 21 1 1</rect></_>
    <_>
      <rect>
        15 0 3 3</rect></_>
    <_>
      <rect>
        15 6 3 3</rect></_>
    <_>
      <rect>
        15 7 3 3</rect></_>
    <_>
      <rect>
        15 10 2 3</rect></_>
    <_>
      <rect>
        15 11 2 2</rect></_>
    <_>
      <rect>
        15 12 2 2</rect></_>
    <_>
      <rect>
        15 19 1 1</rect></_>
    <_>
      <rect>
        16 6 1 1</rect></_>
    <_>
      <rect>
        16 8 2 3</rect></_>
    <_>
      <rect>
        16 9 2 2</rect></_>
    <_>
      <rect>
        16 10 1 1</rect></_>
    <_>
      <rect>
        16 10 2 2</rect></_>
    <_>
      <rect>
        16 11 1 1</rect></_>
    <_>
      <rect>
        16 13 1 1</rect></_>
    <_>
      <rect>
        17 5 1 2</rect></_>
    <_>
      <rect>
        17 9 1 2</rect></_>
    <_>
      <rect>
        17 10 1 2</rect></_>
    <_>
      <rect>
        17 11 1 2</rect></_>
    <_>
      <rect>
        17 12 2 3</rect></_>
    <_>
      <rect>
        17 14 2 3</rect></_>
    <_>
      <rect>
        18 9 2 2</rect></_>
    <_>
      <rect>
        18 13 1 1</rect></_>
    <_>
      <rect>
        18 20 1 1</rect></_>
    <_>
      <rect>
        19 8 1 1</rect></_>
    <_>
      <rect>
        19 11 1 1</rect></_>
    <_>
      <rect>
        19 12 1 1</rect></_>
    <_>
      <rect>
        19 20 1 1</rect></_>
    <_>
      <rect>
        19 21 1 1</rect></_>
    <_>
      <rect>
        20 8 1 1</rect></_>
    <_>
      <rect>
        20 11 1 1</rect></_>
    <_>
      <rect>
        20 13 1 1</rect></_>
    <_>
      <rect>
        20 19 1 1</rect></_>
    <_>
      <rect>
        21 7 1 2</rect></_>
    <_>
      <rect>
        21 8 1 2</rect></_>
    <_>
      <rect>
        21 11 1 1</rect></_>
    <_>
      <rect>
        21 12 1 1</rect></_>
    <_>
      <rect>
        21 13 1 1</rect></_>
    <_>
      <rect>
        21 16 1 2</rect></_></features></cascade>
</opencv_storage>
